digraph Tree {
node [shape=box, style="filled, rounded", color="black", fontname=helvetica] ;
edge [fontname=helvetica] ;
0 [label=<strd &le; 0.292<br/>mse = 0.025<br/>samples = 1619<br/>value = 0.405>, fillcolor="#f4ccaf"] ;
1 [label=<src &le; 0.81<br/>mse = 0.018<br/>samples = 657<br/>value = 0.309>, fillcolor="#f7d8c2"] ;
0 -> 1 [labeldistance=2.5, labelangle=45, headlabel="True"] ;
2 [label=<swvl4 &le; 0.914<br/>mse = 0.016<br/>samples = 483<br/>value = 0.347>, fillcolor="#f6d3ba"] ;
1 -> 2 ;
3 [label=<lai_lv &le; 0.625<br/>mse = 0.014<br/>samples = 460<br/>value = 0.336>, fillcolor="#f6d5bc"] ;
2 -> 3 ;
4 [label=<fal &le; 0.617<br/>mse = 0.012<br/>samples = 271<br/>value = 0.303>, fillcolor="#f7d9c3"] ;
3 -> 4 ;
5 [label=<SWI1km-SWI-100 &le; 0.77<br/>mse = 0.009<br/>samples = 214<br/>value = 0.284>, fillcolor="#f8dbc7"] ;
4 -> 5 ;
6 [label=<swvl1 &le; 0.341<br/>mse = 0.007<br/>samples = 111<br/>value = 0.312>, fillcolor="#f7d8c1"] ;
5 -> 6 ;
7 [label=<mse = 0.005<br/>samples = 59<br/>value = 0.278>, fillcolor="#f8dcc8"] ;
6 -> 7 ;
8 [label=<mse = 0.007<br/>samples = 52<br/>value = 0.35>, fillcolor="#f6d3ba"] ;
6 -> 8 ;
9 [label=<SWI1km-SWI-100 &le; 0.858<br/>mse = 0.01<br/>samples = 103<br/>value = 0.254>, fillcolor="#f8dfcd"] ;
5 -> 9 ;
10 [label=<mse = 0.007<br/>samples = 64<br/>value = 0.218>, fillcolor="#f9e3d4"] ;
9 -> 10 ;
11 [label=<mse = 0.009<br/>samples = 39<br/>value = 0.312>, fillcolor="#f7d8c1"] ;
9 -> 11 ;
12 [label=<ALDH-AL-DH-VI &le; 0.498<br/>mse = 0.016<br/>samples = 57<br/>value = 0.373>, fillcolor="#f5d0b5"] ;
4 -> 12 ;
13 [label=<ALBH-AL-BH-BB &le; 0.433<br/>mse = 0.013<br/>samples = 44<br/>value = 0.411>, fillcolor="#f4cbae"] ;
12 -> 13 ;
14 [label=<mse = 0.013<br/>samples = 26<br/>value = 0.457>, fillcolor="#f3c5a5"] ;
13 -> 14 ;
15 [label=<mse = 0.006<br/>samples = 18<br/>value = 0.344>, fillcolor="#f6d4bb"] ;
13 -> 15 ;
16 [label=<swvl4 &le; 0.268<br/>mse = 0.002<br/>samples = 13<br/>value = 0.245>, fillcolor="#f9e0cf"] ;
12 -> 16 ;
17 [label=<mse = 0.0<br/>samples = 1<br/>value = 0.408>, fillcolor="#f4ccae"] ;
16 -> 17 ;
18 [label=<mse = 0.0<br/>samples = 12<br/>value = 0.231>, fillcolor="#f9e2d1"] ;
16 -> 18 ;
19 [label=<lai_lv &le; 0.994<br/>mse = 0.013<br/>samples = 189<br/>value = 0.384>, fillcolor="#f5cfb3"] ;
3 -> 19 ;
20 [label=<src &le; 0.611<br/>mse = 0.013<br/>samples = 147<br/>value = 0.411>, fillcolor="#f4cbae"] ;
19 -> 20 ;
21 [label=<TOCR-REF-NOR-SWIR &le; 0.342<br/>mse = 0.011<br/>samples = 140<br/>value = 0.401>, fillcolor="#f5cdb0"] ;
20 -> 21 ;
22 [label=<mse = 0.01<br/>samples = 94<br/>value = 0.425>, fillcolor="#f4c9ab"] ;
21 -> 22 ;
23 [label=<mse = 0.01<br/>samples = 46<br/>value = 0.35>, fillcolor="#f6d3ba"] ;
21 -> 23 ;
24 [label=<GDMP300-RT0-GDMP &le; 0.288<br/>mse = 0.001<br/>samples = 7<br/>value = 0.606>, fillcolor="#efb387"] ;
20 -> 24 ;
25 [label=<mse = 0.0<br/>samples = 1<br/>value = 0.523>, fillcolor="#f1bd98"] ;
24 -> 25 ;
26 [label=<mse = 0.0<br/>samples = 6<br/>value = 0.62>, fillcolor="#efb184"] ;
24 -> 26 ;
27 [label=<SWI1km-SWI-100 &le; 0.634<br/>mse = 0.005<br/>samples = 42<br/>value = 0.292>, fillcolor="#f7dac5"] ;
19 -> 27 ;
28 [label=<GDMP300-RT0-GDMP &le; 0.308<br/>mse = 0.006<br/>samples = 19<br/>value = 0.343>, fillcolor="#f6d4bb"] ;
27 -> 28 ;
29 [label=<mse = 0.002<br/>samples = 11<br/>value = 0.393>, fillcolor="#f5cdb1"] ;
28 -> 29 ;
30 [label=<mse = 0.002<br/>samples = 8<br/>value = 0.273>, fillcolor="#f8ddc9"] ;
28 -> 30 ;
31 [label=<TOCR-REF-NOR-RED &le; 0.102<br/>mse = 0.001<br/>samples = 23<br/>value = 0.251>, fillcolor="#f8dfcd"] ;
27 -> 31 ;
32 [label=<mse = 0.004<br/>samples = 2<br/>value = 0.318>, fillcolor="#f7d7c0"] ;
31 -> 32 ;
33 [label=<mse = 0.0<br/>samples = 21<br/>value = 0.245>, fillcolor="#f9e0cf"] ;
31 -> 33 ;
34 [label=<SWI1km-SWI-010 &le; 0.77<br/>mse = 0.009<br/>samples = 23<br/>value = 0.565>, fillcolor="#f0b88f"] ;
2 -> 34 ;
35 [label=<ALBH-AL-BH-BB &le; 0.552<br/>mse = 0.003<br/>samples = 16<br/>value = 0.615>, fillcolor="#efb285"] ;
34 -> 35 ;
36 [label=<VCI_y &le; 0.826<br/>mse = 0.0<br/>samples = 15<br/>value = 0.628>, fillcolor="#efb083"] ;
35 -> 36 ;
37 [label=<mse = 0.0<br/>samples = 3<br/>value = 0.618>, fillcolor="#efb185"] ;
36 -> 37 ;
38 [label=<ALBH-AL-BH-BB &le; 0.087<br/>mse = 0.0<br/>samples = 12<br/>value = 0.63>, fillcolor="#efb082"] ;
36 -> 38 ;
39 [label=<mse = 0.0<br/>samples = 1<br/>value = 0.618>, fillcolor="#efb185"] ;
38 -> 39 ;
40 [label=<mse = -0.0<br/>samples = 11<br/>value = 0.631>, fillcolor="#efaf82"] ;
38 -> 40 ;
41 [label=<mse = -0.0<br/>samples = 1<br/>value = 0.421>, fillcolor="#f4caac"] ;
35 -> 41 ;
42 [label=<SWI1km-SWI-002 &le; 0.843<br/>mse = 0.005<br/>samples = 7<br/>value = 0.451>, fillcolor="#f3c6a6"] ;
34 -> 42 ;
43 [label=<SWI1km-SWI-100 &le; 0.831<br/>mse = 0.0<br/>samples = 6<br/>value = 0.421>, fillcolor="#f4caac"] ;
42 -> 43 ;
44 [label=<mse = 0.0<br/>samples = 1<br/>value = 0.421>, fillcolor="#f4caac"] ;
43 -> 44 ;
45 [label=<TOCR-REF-NOR-BLUE &le; 0.449<br/>mse = 0.0<br/>samples = 5<br/>value = 0.421>, fillcolor="#f4caac"] ;
43 -> 45 ;
46 [label=<mse = 0.0<br/>samples = 1<br/>value = 0.421>, fillcolor="#f4caac"] ;
45 -> 46 ;
47 [label=<mse = 0.0<br/>samples = 4<br/>value = 0.421>, fillcolor="#f4caac"] ;
45 -> 47 ;
48 [label=<mse = -0.0<br/>samples = 1<br/>value = 0.631>, fillcolor="#efaf82"] ;
42 -> 48 ;
49 [label=<d2m &le; 0.227<br/>mse = 0.009<br/>samples = 174<br/>value = 0.205>, fillcolor="#fae5d6"] ;
1 -> 49 ;
50 [label=<SWI1km-SWI-010 &le; 0.863<br/>mse = 0.008<br/>samples = 157<br/>value = 0.191>, fillcolor="#fae7d9"] ;
49 -> 50 ;
51 [label=<GDMP300-RT0-GDMP &le; 0.301<br/>mse = 0.008<br/>samples = 45<br/>value = 0.149>, fillcolor="#fbece2"] ;
50 -> 51 ;
52 [label=<GDMP300-RT0-GDMP &le; 0.273<br/>mse = 0.009<br/>samples = 12<br/>value = 0.223>, fillcolor="#f9e3d3"] ;
51 -> 52 ;
53 [label=<VCI_y &le; 0.829<br/>mse = 0.004<br/>samples = 10<br/>value = 0.189>, fillcolor="#fae7da"] ;
52 -> 53 ;
54 [label=<mse = 0.001<br/>samples = 5<br/>value = 0.231>, fillcolor="#f9e2d1"] ;
53 -> 54 ;
55 [label=<mse = 0.003<br/>samples = 5<br/>value = 0.148>, fillcolor="#fbece2"] ;
53 -> 55 ;
56 [label=<swvl3 &le; 0.416<br/>mse = 0.0<br/>samples = 2<br/>value = 0.392>, fillcolor="#f5ceb1"] ;
52 -> 56 ;
57 [label=<mse = 0.0<br/>samples = 1<br/>value = 0.408>, fillcolor="#f4ccae"] ;
56 -> 57 ;
58 [label=<mse = 0.0<br/>samples = 1<br/>value = 0.377>, fillcolor="#f5d0b4"] ;
56 -> 58 ;
59 [label=<NDVI &le; 0.481<br/>mse = 0.004<br/>samples = 33<br/>value = 0.122>, fillcolor="#fcf0e7"] ;
51 -> 59 ;
60 [label=<FCOVER300-RT0-FCOVER &le; 0.512<br/>mse = 0.006<br/>samples = 18<br/>value = 0.155>, fillcolor="#fbebe0"] ;
59 -> 60 ;
61 [label=<mse = 0.005<br/>samples = 14<br/>value = 0.136>, fillcolor="#fbeee4"] ;
60 -> 61 ;
62 [label=<mse = -0.0<br/>samples = 4<br/>value = 0.222>, fillcolor="#f9e3d3"] ;
60 -> 62 ;
63 [label=<mse = -0.0<br/>samples = 15<br/>value = 0.082>, fillcolor="#fdf5ef"] ;
59 -> 63 ;
64 [label=<SWI1km-SWI-015 &le; 0.95<br/>mse = 0.006<br/>samples = 112<br/>value = 0.208>, fillcolor="#fae5d6"] ;
50 -> 64 ;
65 [label=<lai_hv &le; 0.341<br/>mse = 0.007<br/>samples = 82<br/>value = 0.227>, fillcolor="#f9e2d2"] ;
64 -> 65 ;
66 [label=<NDVI &le; 0.513<br/>mse = 0.003<br/>samples = 50<br/>value = 0.2>, fillcolor="#fae6d7"] ;
65 -> 66 ;
67 [label=<mse = 0.001<br/>samples = 38<br/>value = 0.215>, fillcolor="#f9e4d4"] ;
66 -> 67 ;
68 [label=<mse = 0.004<br/>samples = 12<br/>value = 0.151>, fillcolor="#fbece1"] ;
66 -> 68 ;
69 [label=<GDMP300-RT0-GDMP &le; 0.279<br/>mse = 0.011<br/>samples = 32<br/>value = 0.27>, fillcolor="#f8ddca"] ;
65 -> 69 ;
70 [label=<mse = 0.001<br/>samples = 3<br/>value = 0.104>, fillcolor="#fcf2ea"] ;
69 -> 70 ;
71 [label=<mse = 0.009<br/>samples = 29<br/>value = 0.287>, fillcolor="#f8dbc6"] ;
69 -> 71 ;
72 [label=<GDMP300-RT0-GDMP &le; 0.182<br/>mse = 0.001<br/>samples = 30<br/>value = 0.157>, fillcolor="#fbebe0"] ;
64 -> 72 ;
73 [label=<mse = 0.0<br/>samples = 1<br/>value = 0.278>, fillcolor="#f8dcc8"] ;
72 -> 73 ;
74 [label=<SWI1km-SWI-100 &le; 0.901<br/>mse = 0.0<br/>samples = 29<br/>value = 0.153>, fillcolor="#fbece1"] ;
72 -> 74 ;
75 [label=<mse = 0.001<br/>samples = 5<br/>value = 0.17>, fillcolor="#fbeadd"] ;
74 -> 75 ;
76 [label=<mse = 0.0<br/>samples = 24<br/>value = 0.15>, fillcolor="#fbece1"] ;
74 -> 76 ;
77 [label=<SWI1km-SWI-040 &le; 0.941<br/>mse = 0.004<br/>samples = 17<br/>value = 0.328>, fillcolor="#f6d6be"] ;
49 -> 77 ;
78 [label=<ALDH-AL-DH-VI &le; 0.443<br/>mse = 0.003<br/>samples = 9<br/>value = 0.376>, fillcolor="#f5d0b5"] ;
77 -> 78 ;
79 [label=<TOCR-REF-NOR-RED &le; 0.13<br/>mse = 0.0<br/>samples = 7<br/>value = 0.405>, fillcolor="#f4ccaf"] ;
78 -> 79 ;
80 [label=<NDVI &le; 0.505<br/>mse = 0.0<br/>samples = 3<br/>value = 0.401>, fillcolor="#f5ccb0"] ;
79 -> 80 ;
81 [label=<mse = 0.0<br/>samples = 1<br/>value = 0.408>, fillcolor="#f4ccae"] ;
80 -> 81 ;
82 [label=<mse = -0.0<br/>samples = 2<br/>value = 0.398>, fillcolor="#f5cdb0"] ;
80 -> 82 ;
83 [label=<mse = 0.0<br/>samples = 4<br/>value = 0.408>, fillcolor="#f4ccae"] ;
79 -> 83 ;
84 [label=<FCOVER300-RT0-FCOVER &le; 0.552<br/>mse = 0.0<br/>samples = 2<br/>value = 0.274>, fillcolor="#f8ddc9"] ;
78 -> 84 ;
85 [label=<mse = 0.0<br/>samples = 1<br/>value = 0.278>, fillcolor="#f8dcc8"] ;
84 -> 85 ;
86 [label=<mse = -0.0<br/>samples = 1<br/>value = 0.269>, fillcolor="#f8ddca"] ;
84 -> 86 ;
87 [label=<TOCR-REF-NOR-BLUE &le; 0.463<br/>mse = 0.0<br/>samples = 8<br/>value = 0.275>, fillcolor="#f8dcc9"] ;
77 -> 87 ;
88 [label=<mse = 0.0<br/>samples = 3<br/>value = 0.269>, fillcolor="#f8ddca"] ;
87 -> 88 ;
89 [label=<mse = -0.0<br/>samples = 5<br/>value = 0.278>, fillcolor="#f8dcc8"] ;
87 -> 89 ;
90 [label=<str &le; 0.076<br/>mse = 0.019<br/>samples = 962<br/>value = 0.47>, fillcolor="#f3c4a2"] ;
0 -> 90 [labeldistance=2.5, labelangle=-45, headlabel="False"] ;
91 [label=<TOCR-REF-NOR-BLUE &le; 0.343<br/>mse = 0.039<br/>samples = 112<br/>value = 0.652>, fillcolor="#eead7e"] ;
90 -> 91 ;
92 [label=<VCI_y &le; 0.84<br/>mse = 0.021<br/>samples = 23<br/>value = 0.469>, fillcolor="#f3c4a2"] ;
91 -> 92 ;
93 [label=<mse = 0.0<br/>samples = 1<br/>value = 1.0>, fillcolor="#e58139"] ;
92 -> 93 ;
94 [label=<VCI_y &le; 0.865<br/>mse = 0.009<br/>samples = 22<br/>value = 0.445>, fillcolor="#f3c7a7"] ;
92 -> 94 ;
95 [label=<swvl2 &le; 0.054<br/>mse = 0.004<br/>samples = 2<br/>value = 0.627>, fillcolor="#efb083"] ;
94 -> 95 ;
96 [label=<mse = 0.0<br/>samples = 1<br/>value = 0.567>, fillcolor="#f0b88f"] ;
95 -> 96 ;
97 [label=<mse = -0.0<br/>samples = 1<br/>value = 0.688>, fillcolor="#eda877"] ;
95 -> 97 ;
98 [label=<ALDH-AL-DH-VI &le; 0.29<br/>mse = 0.006<br/>samples = 20<br/>value = 0.426>, fillcolor="#f4c9ab"] ;
94 -> 98 ;
99 [label=<mse = 0.0<br/>samples = 1<br/>value = 0.688>, fillcolor="#eda877"] ;
98 -> 99 ;
100 [label=<GDMP300-RT0-GDMP &le; 0.616<br/>mse = 0.002<br/>samples = 19<br/>value = 0.413>, fillcolor="#f4cbad"] ;
98 -> 100 ;
101 [label=<mse = 0.0<br/>samples = 15<br/>value = 0.392>, fillcolor="#f5ceb1"] ;
100 -> 101 ;
102 [label=<mse = 0.002<br/>samples = 4<br/>value = 0.489>, fillcolor="#f2c19e"] ;
100 -> 102 ;
103 [label=<swvl1 &le; 0.019<br/>mse = 0.033<br/>samples = 89<br/>value = 0.699>, fillcolor="#eda775"] ;
91 -> 103 ;
104 [label=<ALDH-AL-DH-VI &le; 0.669<br/>mse = 0.016<br/>samples = 58<br/>value = 0.632>, fillcolor="#efaf82"] ;
103 -> 104 ;
105 [label=<TOCR-REF-NOR-BLUE &le; 0.394<br/>mse = 0.016<br/>samples = 46<br/>value = 0.608>, fillcolor="#efb287"] ;
104 -> 105 ;
106 [label=<GDMP300-RT0-GDMP &le; 0.892<br/>mse = 0.009<br/>samples = 7<br/>value = 0.507>, fillcolor="#f2bf9b"] ;
105 -> 106 ;
107 [label=<mse = 0.0<br/>samples = 5<br/>value = 0.469>, fillcolor="#f3c4a2"] ;
106 -> 107 ;
108 [label=<mse = 0.02<br/>samples = 2<br/>value = 0.603>, fillcolor="#efb388"] ;
106 -> 108 ;
109 [label=<lai_lv &le; 0.825<br/>mse = 0.015<br/>samples = 39<br/>value = 0.626>, fillcolor="#efb083"] ;
105 -> 109 ;
110 [label=<mse = 0.0<br/>samples = 7<br/>value = 0.731>, fillcolor="#eca36e"] ;
109 -> 110 ;
111 [label=<mse = 0.015<br/>samples = 32<br/>value = 0.603>, fillcolor="#efb388"] ;
109 -> 111 ;
112 [label=<ALDH-AL-DH-BB &le; 0.573<br/>mse = 0.006<br/>samples = 12<br/>value = 0.724>, fillcolor="#eca470"] ;
104 -> 112 ;
113 [label=<SWI1km-SWI-010 &le; 0.147<br/>mse = 0.001<br/>samples = 10<br/>value = 0.749>, fillcolor="#eca16b"] ;
112 -> 113 ;
114 [label=<mse = 0.0<br/>samples = 1<br/>value = 0.828>, fillcolor="#e9975b"] ;
113 -> 114 ;
115 [label=<mse = 0.0<br/>samples = 9<br/>value = 0.74>, fillcolor="#eca26d"] ;
113 -> 115 ;
116 [label=<str &le; 0.028<br/>mse = 0.016<br/>samples = 2<br/>value = 0.604>, fillcolor="#efb387"] ;
112 -> 116 ;
117 [label=<mse = 0.0<br/>samples = 1<br/>value = 0.729>, fillcolor="#eca36f"] ;
116 -> 117 ;
118 [label=<mse = 0.0<br/>samples = 1<br/>value = 0.479>, fillcolor="#f3c3a0"] ;
116 -> 118 ;
119 [label=<GDMP300-RT0-GDMP &le; 0.456<br/>mse = 0.041<br/>samples = 31<br/>value = 0.824>, fillcolor="#ea975c"] ;
103 -> 119 ;
120 [label=<mse = 0.0<br/>samples = 2<br/>value = 0.386>, fillcolor="#f5ceb3"] ;
119 -> 120 ;
121 [label=<SWI1km-SWI-015 &le; 0.077<br/>mse = 0.029<br/>samples = 29<br/>value = 0.854>, fillcolor="#e99356"] ;
119 -> 121 ;
122 [label=<mse = 0.0<br/>samples = 1<br/>value = 0.386>, fillcolor="#f5ceb3"] ;
121 -> 122 ;
123 [label=<SWI1km-SWI-002 &le; 0.38<br/>mse = 0.022<br/>samples = 28<br/>value = 0.871>, fillcolor="#e89153"] ;
121 -> 123 ;
124 [label=<mse = 0.022<br/>samples = 21<br/>value = 0.828>, fillcolor="#e9975b"] ;
123 -> 124 ;
125 [label=<mse = -0.0<br/>samples = 7<br/>value = 1.0>, fillcolor="#e58139"] ;
123 -> 125 ;
126 [label=<strd &le; 0.849<br/>mse = 0.012<br/>samples = 850<br/>value = 0.446>, fillcolor="#f3c7a7"] ;
90 -> 126 ;
127 [label=<lai_hv &le; 0.345<br/>mse = 0.008<br/>samples = 807<br/>value = 0.458>, fillcolor="#f3c5a4"] ;
126 -> 127 ;
128 [label=<swvl1 &le; 0.26<br/>mse = 0.005<br/>samples = 290<br/>value = 0.513>, fillcolor="#f2be99"] ;
127 -> 128 ;
129 [label=<SWI1km-SWI-100 &le; 0.633<br/>mse = 0.003<br/>samples = 141<br/>value = 0.556>, fillcolor="#f1b991"] ;
128 -> 129 ;
130 [label=<GDMP300-RT0-GDMP &le; 0.404<br/>mse = 0.002<br/>samples = 135<br/>value = 0.561>, fillcolor="#f0b890"] ;
129 -> 130 ;
131 [label=<mse = 0.003<br/>samples = 56<br/>value = 0.54>, fillcolor="#f1bb94"] ;
130 -> 131 ;
132 [label=<mse = 0.001<br/>samples = 79<br/>value = 0.577>, fillcolor="#f0b68d"] ;
130 -> 132 ;
133 [label=<ALDH-AL-DH-VI &le; 0.444<br/>mse = 0.003<br/>samples = 6<br/>value = 0.439>, fillcolor="#f4c8a8"] ;
129 -> 133 ;
134 [label=<mse = 0.0<br/>samples = 4<br/>value = 0.403>, fillcolor="#f5ccaf"] ;
133 -> 134 ;
135 [label=<mse = 0.0<br/>samples = 2<br/>value = 0.509>, fillcolor="#f2bf9a"] ;
133 -> 135 ;
136 [label=<lai_lv &le; 0.319<br/>mse = 0.004<br/>samples = 149<br/>value = 0.472>, fillcolor="#f3c4a2"] ;
128 -> 136 ;
137 [label=<TOCR-REF-NOR-NIR &le; 0.388<br/>mse = 0.0<br/>samples = 21<br/>value = 0.55>, fillcolor="#f1ba92"] ;
136 -> 137 ;
138 [label=<mse = 0.0<br/>samples = 1<br/>value = 0.542>, fillcolor="#f1bb94"] ;
137 -> 138 ;
139 [label=<mse = 0.0<br/>samples = 20<br/>value = 0.551>, fillcolor="#f1ba92"] ;
137 -> 139 ;
140 [label=<TOCR-REF-NOR-RED &le; 0.019<br/>mse = 0.003<br/>samples = 128<br/>value = 0.459>, fillcolor="#f3c5a4"] ;
136 -> 140 ;
141 [label=<mse = 0.0<br/>samples = 1<br/>value = 0.213>, fillcolor="#f9e4d5"] ;
140 -> 141 ;
142 [label=<mse = 0.003<br/>samples = 127<br/>value = 0.461>, fillcolor="#f3c5a4"] ;
140 -> 142 ;
143 [label=<d2m &le; 0.701<br/>mse = 0.006<br/>samples = 517<br/>value = 0.427>, fillcolor="#f4c9aa"] ;
127 -> 143 ;
144 [label=<tp &le; 0.763<br/>mse = 0.004<br/>samples = 374<br/>value = 0.405>, fillcolor="#f4ccaf"] ;
143 -> 144 ;
145 [label=<TOCR-REF-NOR-NIR &le; 0.417<br/>mse = 0.006<br/>samples = 29<br/>value = 0.286>, fillcolor="#f8dbc6"] ;
144 -> 145 ;
146 [label=<mse = 0.006<br/>samples = 7<br/>value = 0.372>, fillcolor="#f5d0b5"] ;
145 -> 146 ;
147 [label=<mse = 0.002<br/>samples = 22<br/>value = 0.259>, fillcolor="#f8decc"] ;
145 -> 147 ;
148 [label=<SWI1km-SWI-040 &le; 0.669<br/>mse = 0.003<br/>samples = 345<br/>value = 0.415>, fillcolor="#f4cbad"] ;
144 -> 148 ;
149 [label=<mse = 0.002<br/>samples = 308<br/>value = 0.404>, fillcolor="#f4ccaf"] ;
148 -> 149 ;
150 [label=<mse = 0.006<br/>samples = 37<br/>value = 0.505>, fillcolor="#f2bf9b"] ;
148 -> 150 ;
151 [label=<NDVI &le; 0.511<br/>mse = 0.007<br/>samples = 143<br/>value = 0.485>, fillcolor="#f2c29f"] ;
143 -> 151 ;
152 [label=<SWI1km-SWI-100 &le; 0.535<br/>mse = 0.007<br/>samples = 105<br/>value = 0.502>, fillcolor="#f2c09c"] ;
151 -> 152 ;
153 [label=<mse = 0.006<br/>samples = 84<br/>value = 0.517>, fillcolor="#f2be99"] ;
152 -> 153 ;
154 [label=<mse = 0.006<br/>samples = 21<br/>value = 0.442>, fillcolor="#f4c7a7"] ;
152 -> 154 ;
155 [label=<fal &le; 0.427<br/>mse = 0.004<br/>samples = 38<br/>value = 0.438>, fillcolor="#f4c8a8"] ;
151 -> 155 ;
156 [label=<mse = 0.003<br/>samples = 28<br/>value = 0.42>, fillcolor="#f4caac"] ;
155 -> 156 ;
157 [label=<mse = 0.002<br/>samples = 10<br/>value = 0.49>, fillcolor="#f2c19e"] ;
155 -> 157 ;
158 [label=<swvl2 &le; 0.026<br/>mse = 0.034<br/>samples = 43<br/>value = 0.219>, fillcolor="#f9e3d4"] ;
126 -> 158 ;
159 [label=<GDMP300-RT0-GDMP &le; 0.756<br/>mse = 0.017<br/>samples = 14<br/>value = 0.068>, fillcolor="#fdf6f2"] ;
158 -> 159 ;
160 [label=<mse = 0.0<br/>samples = 10<br/>value = 0.0>, fillcolor="#ffffff"] ;
159 -> 160 ;
161 [label=<GDMP300-RT0-GDMP &le; 0.781<br/>mse = 0.019<br/>samples = 4<br/>value = 0.237>, fillcolor="#f9e1d0"] ;
159 -> 161 ;
162 [label=<mse = 0.0<br/>samples = 2<br/>value = 0.316>, fillcolor="#f7d7c0"] ;
161 -> 162 ;
163 [label=<mse = 0.025<br/>samples = 2<br/>value = 0.158>, fillcolor="#fbebe0"] ;
161 -> 163 ;
164 [label=<NDVI &le; 0.417<br/>mse = 0.025<br/>samples = 29<br/>value = 0.292>, fillcolor="#f7dac5"] ;
158 -> 164 ;
165 [label=<fal &le; 0.451<br/>mse = 0.012<br/>samples = 7<br/>value = 0.045>, fillcolor="#fef9f6"] ;
164 -> 165 ;
166 [label=<mse = 0.0<br/>samples = 1<br/>value = 0.316>, fillcolor="#f7d7c0"] ;
165 -> 166 ;
167 [label=<mse = 0.0<br/>samples = 6<br/>value = 0.0>, fillcolor="#ffffff"] ;
165 -> 167 ;
168 [label=<VCI_y &le; 0.884<br/>mse = 0.004<br/>samples = 22<br/>value = 0.371>, fillcolor="#f5d0b6"] ;
164 -> 168 ;
169 [label=<swvl2 &le; 0.038<br/>mse = 0.0<br/>samples = 8<br/>value = 0.43>, fillcolor="#f4c9aa"] ;
168 -> 169 ;
170 [label=<mse = 0.0<br/>samples = 1<br/>value = 0.463>, fillcolor="#f3c5a3"] ;
169 -> 170 ;
171 [label=<mse = -0.0<br/>samples = 7<br/>value = 0.425>, fillcolor="#f4c9ab"] ;
169 -> 171 ;
172 [label=<ALDH-AL-DH-BB &le; 0.338<br/>mse = 0.003<br/>samples = 14<br/>value = 0.337>, fillcolor="#f6d5bc"] ;
168 -> 172 ;
173 [label=<mse = 0.0<br/>samples = 2<br/>value = 0.463>, fillcolor="#f3c5a3"] ;
172 -> 173 ;
174 [label=<mse = -0.0<br/>samples = 12<br/>value = 0.316>, fillcolor="#f7d7c0"] ;
172 -> 174 ;
}